#include "fc_params.h"

const float fc_weights[] = {
20.00000000f, 23.00000000f, 4.00000000f, -11.00000000f, 9.00000000f, 28.00000000f, 78.00000000f, 4.00000000f, 
64.00000000f, 15.00000000f, -28.00000000f, -13.00000000f, -57.00000000f, 40.00000000f, 24.00000000f, -6.00000000f, 
73.00000000f, 5.00000000f, 7.00000000f, 15.00000000f, -34.00000000f, -7.00000000f, 79.00000000f, -15.00000000f, 
13.00000000f, 6.00000000f, -18.00000000f, -6.00000000f, 31.00000000f, 22.00000000f, -9.00000000f, 4.00000000f, 
-8.00000000f, 22.00000000f, -41.00000000f, -28.00000000f, -19.00000000f, -46.00000000f, -28.00000000f, -8.00000000f, 
9.00000000f, -22.00000000f, -48.00000000f, -17.00000000f, 17.00000000f, 19.00000000f, -13.00000000f, 20.00000000f, 
56.00000000f, -20.00000000f, -11.00000000f, -85.00000000f, -1.00000000f, 37.00000000f, 35.00000000f, -2.00000000f, 
-22.00000000f, 16.00000000f, 34.00000000f, -62.00000000f, 3.00000000f, 0.00000000f, 10.00000000f, -48.00000000f, 
-53.00000000f, -47.00000000f, -3.00000000f, 50.00000000f, -11.00000000f, 5.00000000f, -10.00000000f, -27.00000000f, 
25.00000000f, -25.00000000f, 10.00000000f, -17.00000000f, -38.00000000f, 4.00000000f, 27.00000000f, 4.00000000f, 
-20.00000000f, -24.00000000f, -8.00000000f, -12.00000000f, -14.00000000f, -46.00000000f, -16.00000000f, -28.00000000f, 
-25.00000000f, -28.00000000f, 11.00000000f, 7.00000000f, -11.00000000f, -20.00000000f, -17.00000000f, -2.00000000f, 
-13.00000000f, -2.00000000f, -1.00000000f, -29.00000000f, 7.00000000f, -30.00000000f, 20.00000000f, -32.00000000f, 
-41.00000000f, 43.00000000f, 21.00000000f, 28.00000000f, 9.00000000f, 17.00000000f, 51.00000000f, 12.00000000f, 
75.00000000f, 12.00000000f, -23.00000000f, -10.00000000f, -76.00000000f, -51.00000000f, 7.00000000f, -15.00000000f, 
58.00000000f, 33.00000000f, -77.00000000f, -110.00000000f, -85.00000000f, 72.00000000f, 127.00000000f, -61.00000000f, 
49.00000000f, -71.00000000f, -24.00000000f, -38.00000000f, -19.00000000f, -22.00000000f, 8.00000000f, 16.00000000f, 
45.00000000f, 17.00000000f, 11.00000000f, 16.00000000f, -43.00000000f, 36.00000000f, 45.00000000f, -50.00000000f, 
9.00000000f, 3.00000000f, -2.00000000f, 6.00000000f, -15.00000000f, 17.00000000f, 6.00000000f, 20.00000000f, 
25.00000000f, 15.00000000f, 13.00000000f, -2.00000000f, 45.00000000f, 32.00000000f, -39.00000000f, -36.00000000f, 
-5.00000000f, -16.00000000f, -2.00000000f, -2.00000000f, 36.00000000f, 27.00000000f, 16.00000000f, 30.00000000f, 
-1.00000000f, 12.00000000f, 44.00000000f, 5.00000000f, 1.00000000f, 33.00000000f, 10.00000000f, -12.00000000f, 
12.00000000f, -56.00000000f, 15.00000000f, -43.00000000f, -5.00000000f, -11.00000000f, -3.00000000f, -17.00000000f, 
26.00000000f, 18.00000000f, -3.00000000f, 11.00000000f, 4.00000000f, -28.00000000f, -33.00000000f, -12.00000000f, 
13.00000000f, 7.00000000f, 19.00000000f, 23.00000000f, 8.00000000f, 10.00000000f, -4.00000000f, 6.00000000f, 
11.00000000f, -11.00000000f, -8.00000000f, 24.00000000f, 3.00000000f, -10.00000000f, -6.00000000f, -11.00000000f, 
25.00000000f, 26.00000000f, -19.00000000f, -11.00000000f, 14.00000000f, 7.00000000f, -5.00000000f, -7.00000000f, 
-3.00000000f, 16.00000000f, -4.00000000f, 6.00000000f, 1.00000000f, -25.00000000f, -3.00000000f, -16.00000000f, 
6.00000000f, 11.00000000f, 27.00000000f, -3.00000000f, -11.00000000f, -22.00000000f, 10.00000000f, 17.00000000f, 
8.00000000f, -3.00000000f, 2.00000000f, 13.00000000f, 8.00000000f, -19.00000000f, -16.00000000f, -11.00000000f, 
-11.00000000f, -10.00000000f, -14.00000000f, -21.00000000f, 6.00000000f, 15.00000000f, -19.00000000f, 10.00000000f, 
-10.00000000f, -14.00000000f, 10.00000000f, -9.00000000f, -34.00000000f, 3.00000000f, -11.00000000f, 13.00000000f, 
-54.00000000f, -31.00000000f, -30.00000000f, -7.00000000f, -3.00000000f, 2.00000000f, 18.00000000f, 47.00000000f, 
-69.00000000f, -62.00000000f, 10.00000000f, -13.00000000f, -67.00000000f, -53.00000000f, 26.00000000f, 2.00000000f, 
23.00000000f, 20.00000000f, -41.00000000f, -40.00000000f, -40.00000000f, -82.00000000f, -120.00000000f, 106.00000000f, 
-85.00000000f, -24.00000000f, 36.00000000f, 80.00000000f, 38.00000000f, 50.00000000f, 36.00000000f, -14.00000000f, 
16.00000000f, 59.00000000f, 58.00000000f, -26.00000000f, 58.00000000f, 73.00000000f, -23.00000000f, -61.00000000f, 
-6.00000000f, 20.00000000f, 17.00000000f, 15.00000000f, -21.00000000f, 4.00000000f, 29.00000000f, -7.00000000f, 
-16.00000000f, -39.00000000f, 13.00000000f, 27.00000000f, 11.00000000f, -3.00000000f, -24.00000000f, -34.00000000f, 
-1.00000000f, 34.00000000f, 40.00000000f, 38.00000000f, -2.00000000f, 21.00000000f, 6.00000000f, -1.00000000f, 
14.00000000f, 20.00000000f, 3.00000000f, 17.00000000f, 20.00000000f, 7.00000000f, -3.00000000f, 15.00000000f, 
17.00000000f, 6.00000000f, 9.00000000f, 0.00000000f, 22.00000000f, 18.00000000f, 9.00000000f, -3.00000000f, 
1.00000000f, -1.00000000f, 6.00000000f, 6.00000000f, 0.00000000f, -2.00000000f, -17.00000000f, -2.00000000f, 
-20.00000000f, -10.00000000f, -10.00000000f, 15.00000000f, 15.00000000f, 19.00000000f, 1.00000000f, -7.00000000f, 
-18.00000000f, -8.00000000f, -10.00000000f, 11.00000000f, 0.00000000f, 11.00000000f, -2.00000000f, -4.00000000f, 
-4.00000000f, -4.00000000f, -1.00000000f, 11.00000000f, 10.00000000f, 12.00000000f, 7.00000000f, -2.00000000f, 
3.00000000f, 9.00000000f, -1.00000000f, 9.00000000f, 8.00000000f, 4.00000000f, 4.00000000f, -3.00000000f, 
-2.00000000f, 0.00000000f, -1.00000000f, 4.00000000f, 12.00000000f, -5.00000000f, -1.00000000f, 2.00000000f, 
-9.00000000f, -5.00000000f, 1.00000000f, -10.00000000f, -1.00000000f, -6.00000000f, -10.00000000f, -1.00000000f, 
-10.00000000f, 15.00000000f, 22.00000000f, 7.00000000f, 27.00000000f, -16.00000000f, -36.00000000f, -16.00000000f, 
-1.00000000f, 9.00000000f, -26.00000000f, 6.00000000f, 19.00000000f, 1.00000000f, 65.00000000f, 23.00000000f, 
-20.00000000f, -30.00000000f, -47.00000000f, -28.00000000f, -1.00000000f, 4.00000000f, -1.00000000f, -29.00000000f, 
-9.00000000f, -21.00000000f, -30.00000000f, -11.00000000f, -13.00000000f, -15.00000000f, 36.00000000f, 68.00000000f, 
0.00000000f, -5.00000000f, -50.00000000f, 44.00000000f, -19.00000000f, -31.00000000f, 46.00000000f, 18.00000000f, 
-35.00000000f, -47.00000000f, 25.00000000f, 12.00000000f, -14.00000000f, -38.00000000f, 22.00000000f, 11.00000000f, 
-103.00000000f, 16.00000000f, -13.00000000f, 34.00000000f, 5.00000000f, -22.00000000f, -16.00000000f, 9.00000000f, 
-34.00000000f, -38.00000000f, -45.00000000f, 14.00000000f, -30.00000000f, -43.00000000f, 10.00000000f, -27.00000000f, 
40.00000000f, 10.00000000f, 47.00000000f, -29.00000000f, 23.00000000f, -11.00000000f, 25.00000000f, 13.00000000f, 
-26.00000000f, 19.00000000f, -31.00000000f, -12.00000000f, -3.00000000f, -16.00000000f, 0.00000000f, 5.00000000f, 
1.00000000f, 7.00000000f, -20.00000000f, 6.00000000f, 10.00000000f, 0.00000000f, 0.00000000f, -10.00000000f, 
9.00000000f, -9.00000000f, -9.00000000f, -3.00000000f, -6.00000000f, 19.00000000f, -10.00000000f, 11.00000000f, 
18.00000000f, -1.00000000f, -13.00000000f, 7.00000000f, 6.00000000f, 17.00000000f, 31.00000000f, 19.00000000f, 
-9.00000000f, 15.00000000f, 18.00000000f, 16.00000000f, -17.00000000f, 1.00000000f, 27.00000000f, 50.00000000f, 
-56.00000000f, 60.00000000f, -21.00000000f, -17.00000000f, 7.00000000f, 36.00000000f, 18.00000000f, -57.00000000f, 
15.00000000f, 53.00000000f, 127.00000000f, 94.00000000f, -119.00000000f, -19.00000000f, 30.00000000f, 71.00000000f, 
47.00000000f, 19.00000000f, 27.00000000f, -32.00000000f, -3.00000000f, 31.00000000f, 1.00000000f, -11.00000000f, 
5.00000000f, -13.00000000f, 39.00000000f, 22.00000000f, -4.00000000f, -21.00000000f, -1.00000000f, 38.00000000f, 
21.00000000f, 36.00000000f, 37.00000000f, -5.00000000f, -2.00000000f, 11.00000000f, -18.00000000f, -27.00000000f, 
2.00000000f, 27.00000000f, 19.00000000f, 7.00000000f, -6.00000000f, 5.00000000f, -20.00000000f, -24.00000000f, 
37.00000000f, 21.00000000f, -27.00000000f, -10.00000000f, 21.00000000f, 13.00000000f, -17.00000000f, -14.00000000f, 
-2.00000000f, -4.00000000f, 7.00000000f, 22.00000000f, 2.00000000f, -28.00000000f, -7.00000000f, -14.00000000f, 
-29.00000000f, 27.00000000f, 29.00000000f, 17.00000000f, 5.00000000f, 3.00000000f, 10.00000000f, 25.00000000f, 
26.00000000f, 20.00000000f, -2.00000000f, 0.00000000f, -8.00000000f, 23.00000000f, -6.00000000f, -13.00000000f, 
-23.00000000f, 13.00000000f, -10.00000000f, -16.00000000f, -7.00000000f, -14.00000000f, 8.00000000f, 31.00000000f, 
-13.00000000f, 4.00000000f, -2.00000000f, -11.00000000f, -11.00000000f, -7.00000000f, -8.00000000f, -6.00000000f, 
-22.00000000f, -19.00000000f, 7.00000000f, -12.00000000f, -7.00000000f, -20.00000000f, -1.00000000f, 13.00000000f, 
11.00000000f, -21.00000000f, -26.00000000f, -9.00000000f, 6.00000000f, 11.00000000f, 17.00000000f, 15.00000000f, 
-17.00000000f, -26.00000000f, -9.00000000f, -20.00000000f, 8.00000000f, 33.00000000f, 14.00000000f, 2.00000000f, 
29.00000000f, 20.00000000f, -13.00000000f, -9.00000000f, 1.00000000f, -9.00000000f, -16.00000000f, -1.00000000f, 
0.00000000f, -25.00000000f, -20.00000000f, 23.00000000f, -33.00000000f, -19.00000000f, -5.00000000f, 4.00000000f, 
15.00000000f, 17.00000000f, 9.00000000f, 10.00000000f, 13.00000000f, 18.00000000f, 34.00000000f, -3.00000000f, 
4.00000000f, -4.00000000f, -8.00000000f, -7.00000000f, 27.00000000f, 36.00000000f, 9.00000000f, -49.00000000f, 
23.00000000f, 90.00000000f, 84.00000000f, -21.00000000f, 35.00000000f, -5.00000000f, -25.00000000f, 6.00000000f, 
-44.00000000f, -39.00000000f, 18.00000000f, 66.00000000f, 16.00000000f, -77.00000000f, -70.00000000f, 107.00000000f, 
-92.00000000f, -46.00000000f, -30.00000000f, 60.00000000f, 28.00000000f, 31.00000000f, -12.00000000f, -43.00000000f, 
-1.00000000f, -25.00000000f, -11.00000000f, -97.00000000f, -75.00000000f, -74.00000000f, 31.00000000f, 17.00000000f, 
104.00000000f, 78.00000000f, 16.00000000f, -22.00000000f, -21.00000000f, 2.00000000f, 11.00000000f, 0.00000000f, 
18.00000000f, 27.00000000f, 2.00000000f, 3.00000000f, -39.00000000f, -27.00000000f, 32.00000000f, -1.00000000f, 
21.00000000f, 24.00000000f, -6.00000000f, 0.00000000f, 2.00000000f, 10.00000000f, -6.00000000f, -9.00000000f, 
-1.00000000f, -1.00000000f, 13.00000000f, -10.00000000f, 15.00000000f, -6.00000000f, 4.00000000f, 20.00000000f, 
20.00000000f, -10.00000000f, -15.00000000f, -32.00000000f, 0.00000000f, -14.00000000f, -12.00000000f, -5.00000000f, 
-8.00000000f, -10.00000000f, 5.00000000f, -9.00000000f, 8.00000000f, 4.00000000f, 21.00000000f, 30.00000000f, 
30.00000000f, 16.00000000f, 15.00000000f, 4.00000000f, 1.00000000f, 8.00000000f, 4.00000000f, 1.00000000f, 
-5.00000000f, 2.00000000f, -3.00000000f, -12.00000000f, -8.00000000f, 0.00000000f, -11.00000000f, -10.00000000f, 
6.00000000f, -10.00000000f, -6.00000000f, -11.00000000f, -2.00000000f, -3.00000000f, -4.00000000f, -6.00000000f, 
0.00000000f, -16.00000000f, -5.00000000f, -2.00000000f, -5.00000000f, -2.00000000f, 5.00000000f, -1.00000000f, 
2.00000000f, -4.00000000f, -5.00000000f, -8.00000000f, -2.00000000f, -1.00000000f, -3.00000000f, -9.00000000f, 
-2.00000000f, -8.00000000f, -11.00000000f, -6.00000000f, -3.00000000f, -1.00000000f, -3.00000000f, -5.00000000f, 
9.00000000f, 41.00000000f, -1.00000000f, 5.00000000f, 27.00000000f, -5.00000000f, 44.00000000f, -8.00000000f, 
-3.00000000f, -5.00000000f, 9.00000000f, -27.00000000f, -16.00000000f, 19.00000000f, -37.00000000f, 38.00000000f, 
55.00000000f, -22.00000000f, 17.00000000f, 13.00000000f, 5.00000000f, 14.00000000f, -3.00000000f, -40.00000000f, 
-29.00000000f, -59.00000000f, -5.00000000f, -37.00000000f, 15.00000000f, -21.00000000f, -6.00000000f, 4.00000000f, 
-20.00000000f, -27.00000000f, -26.00000000f, 24.00000000f, 15.00000000f, 13.00000000f, 32.00000000f, -100.00000000f, 
-25.00000000f, -23.00000000f, -15.00000000f, -37.00000000f, -34.00000000f, 81.00000000f, -47.00000000f, -26.00000000f, 
-99.00000000f, 46.00000000f, -20.00000000f, 2.00000000f, -9.00000000f, -37.00000000f, 21.00000000f, -4.00000000f, 
21.00000000f, 37.00000000f, -15.00000000f, -18.00000000f, 33.00000000f, -77.00000000f, -7.00000000f, -20.00000000f, 
34.00000000f, 49.00000000f, -7.00000000f, -31.00000000f, -14.00000000f, -33.00000000f, 17.00000000f, 23.00000000f, 
1.00000000f, -39.00000000f, -3.00000000f, -37.00000000f, 14.00000000f, -31.00000000f, 17.00000000f, 0.00000000f, 
-10.00000000f, -28.00000000f, -11.00000000f, -7.00000000f, 7.00000000f, 11.00000000f, -2.00000000f, 1.00000000f, 
5.00000000f, -8.00000000f, 22.00000000f, 9.00000000f, -25.00000000f, 28.00000000f, -36.00000000f, -8.00000000f, 
-20.00000000f, -15.00000000f, -10.00000000f, -48.00000000f, 16.00000000f, 22.00000000f, 3.00000000f, -19.00000000f, 
25.00000000f, -32.00000000f, -24.00000000f, 19.00000000f, -24.00000000f, -5.00000000f, -13.00000000f, -31.00000000f, 
6.00000000f, 97.00000000f, -66.00000000f, 85.00000000f, -36.00000000f, 78.00000000f, 48.00000000f, -27.00000000f, 
22.00000000f, -127.00000000f, -122.00000000f, -48.00000000f, -92.00000000f, 36.00000000f, 111.00000000f, -6.00000000f, 
42.00000000f, 27.00000000f, 39.00000000f, 39.00000000f, 36.00000000f, -23.00000000f, -7.00000000f, 39.00000000f, 
41.00000000f, -29.00000000f, -25.00000000f, -19.00000000f, -15.00000000f, 11.00000000f, 19.00000000f, 39.00000000f, 
-44.00000000f, 49.00000000f, 30.00000000f, 21.00000000f, 27.00000000f, -26.00000000f, 6.00000000f, 36.00000000f, 
-29.00000000f, -36.00000000f, 21.00000000f, -14.00000000f, 42.00000000f, -31.00000000f, -27.00000000f, -5.00000000f, 
-4.00000000f, 42.00000000f, 37.00000000f, -11.00000000f, 13.00000000f, 4.00000000f, -3.00000000f, 18.00000000f, 
-12.00000000f, -28.00000000f, 20.00000000f, -4.00000000f, -18.00000000f, -10.00000000f, 28.00000000f, -12.00000000f, 
-5.00000000f, 15.00000000f, 15.00000000f, -13.00000000f, 2.00000000f, 10.00000000f, -7.00000000f, -20.00000000f, 
-12.00000000f, 2.00000000f, 1.00000000f, 8.00000000f, 2.00000000f, 2.00000000f, 6.00000000f, -21.00000000f, 
24.00000000f, -5.00000000f, -38.00000000f, 4.00000000f, 10.00000000f, 6.00000000f, 10.00000000f, 5.00000000f, 
-19.00000000f, -13.00000000f, 0.00000000f, 10.00000000f, 1.00000000f, 7.00000000f, 2.00000000f, -13.00000000f, 
-21.00000000f, -30.00000000f, -4.00000000f, 5.00000000f, 18.00000000f, -37.00000000f, 6.00000000f, 3.00000000f, 
9.00000000f, 2.00000000f, -8.00000000f, 13.00000000f, -1.00000000f, -9.00000000f, -20.00000000f, -12.00000000f, 
16.00000000f, 26.00000000f, 42.00000000f, -4.00000000f, 6.00000000f, 21.00000000f, 2.00000000f, 6.00000000f, 
-4.00000000f, 10.00000000f, 9.00000000f, -7.00000000f, 8.00000000f, -10.00000000f, 7.00000000f, -15.00000000f, 
-13.00000000f, 7.00000000f, -27.00000000f, -47.00000000f, -3.00000000f, 14.00000000f, 3.00000000f, -24.00000000f, 
-13.00000000f, 31.00000000f, 40.00000000f, 23.00000000f, -3.00000000f, -5.00000000f, -22.00000000f, 4.00000000f, 
-9.00000000f, 21.00000000f, -2.00000000f, -17.00000000f, -26.00000000f, 15.00000000f, 33.00000000f, -31.00000000f, 
13.00000000f, 56.00000000f, -9.00000000f, -45.00000000f, -43.00000000f, 10.00000000f, 45.00000000f, 22.00000000f, 
-19.00000000f, 4.00000000f, 12.00000000f, -38.00000000f, -7.00000000f, 108.00000000f, 32.00000000f, -20.00000000f, 
-93.00000000f, -76.00000000f, -10.00000000f, 15.00000000f, -38.00000000f, -91.00000000f, -30.00000000f, -41.00000000f, 
64.00000000f, 13.00000000f, 19.00000000f, -16.00000000f, -77.00000000f, -51.00000000f, 35.00000000f, 11.00000000f, 
87.00000000f, 80.00000000f, 56.00000000f, 13.00000000f, -7.00000000f, 7.00000000f, -9.00000000f, -8.00000000f, 
-6.00000000f, 23.00000000f, 12.00000000f, 12.00000000f, 2.00000000f, -38.00000000f, -3.00000000f, 19.00000000f, 
33.00000000f, 66.00000000f, 7.00000000f, -8.00000000f, -8.00000000f, -15.00000000f, -20.00000000f, -2.00000000f, 
4.00000000f, 34.00000000f, 10.00000000f, 18.00000000f, 17.00000000f, 31.00000000f, 19.00000000f, 43.00000000f, 
33.00000000f, 37.00000000f, 11.00000000f, 10.00000000f, 11.00000000f, 4.00000000f, -15.00000000f, 11.00000000f, 
4.00000000f, 0.00000000f, 1.00000000f, 1.00000000f, -14.00000000f, -5.00000000f, -15.00000000f, 3.00000000f, 
9.00000000f, 7.00000000f, 18.00000000f, 2.00000000f, -1.00000000f, 7.00000000f, -13.00000000f, -6.00000000f, 
2.00000000f, 5.00000000f, 15.00000000f, -9.00000000f, -11.00000000f, 0.00000000f, -6.00000000f, -5.00000000f, 
-5.00000000f, 1.00000000f, 5.00000000f, -3.00000000f, -6.00000000f, -5.00000000f, -3.00000000f, -6.00000000f, 
-8.00000000f, -9.00000000f, -6.00000000f, -2.00000000f, -8.00000000f, -8.00000000f, -4.00000000f, -1.00000000f, 
0.00000000f, 3.00000000f, 0.00000000f, -2.00000000f, -6.00000000f, 3.00000000f, -5.00000000f, -3.00000000f, 
-3.00000000f, -1.00000000f, -8.00000000f, 3.00000000f, -5.00000000f, -6.00000000f, 1.00000000f, -2.00000000f, 
43.00000000f, -2.00000000f, -3.00000000f, 2.00000000f, -25.00000000f, 45.00000000f, 37.00000000f, 29.00000000f, 
-28.00000000f, -12.00000000f, -28.00000000f, -16.00000000f, -11.00000000f, -22.00000000f, 16.00000000f, 30.00000000f, 
-68.00000000f, -25.00000000f, 33.00000000f, -6.00000000f, -59.00000000f, 28.00000000f, 46.00000000f, 48.00000000f, 
5.00000000f, 4.00000000f, 10.00000000f, 11.00000000f, -7.00000000f, -37.00000000f, 13.00000000f, -24.00000000f, 
-33.00000000f, -43.00000000f, -34.00000000f, -24.00000000f, 82.00000000f, 29.00000000f, -51.00000000f, -99.00000000f, 
49.00000000f, 34.00000000f, 27.00000000f, -8.00000000f, -6.00000000f, 18.00000000f, -32.00000000f, -32.00000000f, 
58.00000000f, 47.00000000f, -10.00000000f, -16.00000000f, 10.00000000f, 0.00000000f, -16.00000000f, -32.00000000f, 
23.00000000f, 45.00000000f, 39.00000000f, -32.00000000f, 18.00000000f, 9.00000000f, -12.00000000f, -58.00000000f, 
40.00000000f, 3.00000000f, 46.00000000f, 27.00000000f, -3.00000000f, 3.00000000f, -1.00000000f, 14.00000000f, 
25.00000000f, -60.00000000f, 14.00000000f, 48.00000000f, 47.00000000f, -11.00000000f, 22.00000000f, 17.00000000f, 
-20.00000000f, -18.00000000f, 13.00000000f, -1.00000000f, 19.00000000f, 20.00000000f, -3.00000000f, 3.00000000f, 
-30.00000000f, -10.00000000f, 34.00000000f, 16.00000000f, 10.00000000f, 13.00000000f, 34.00000000f, 15.00000000f, 
14.00000000f, -8.00000000f, -10.00000000f, -7.00000000f, -1.00000000f, 9.00000000f, 40.00000000f, -15.00000000f, 
-17.00000000f, -34.00000000f, -32.00000000f, -15.00000000f, -17.00000000f, -36.00000000f, -10.00000000f, -7.00000000f, 
79.00000000f, -37.00000000f, -50.00000000f, 48.00000000f, 52.00000000f, 57.00000000f, 119.00000000f, -9.00000000f, 
-80.00000000f, -126.00000000f, 57.00000000f, -99.00000000f, -108.00000000f, -127.00000000f, -53.00000000f, -50.00000000f, 
105.00000000f, 26.00000000f, -13.00000000f, -22.00000000f, 24.00000000f, 40.00000000f, 15.00000000f, 20.00000000f, 
-2.00000000f, 0.00000000f, 15.00000000f, 74.00000000f, 31.00000000f, 30.00000000f, 6.00000000f, 12.00000000f, 
5.00000000f, -24.00000000f, 10.00000000f, 40.00000000f, 4.00000000f, 10.00000000f, 4.00000000f, 21.00000000f, 
-26.00000000f, 26.00000000f, 46.00000000f, 46.00000000f, 36.00000000f, 60.00000000f, 17.00000000f, 37.00000000f, 
12.00000000f, 11.00000000f, 38.00000000f, 14.00000000f, -10.00000000f, -30.00000000f, 5.00000000f, -26.00000000f, 
4.00000000f, -15.00000000f, -7.00000000f, 8.00000000f, 4.00000000f, 29.00000000f, -3.00000000f, 46.00000000f, 
28.00000000f, -19.00000000f, -33.00000000f, -37.00000000f, 0.00000000f, -37.00000000f, -8.00000000f, -12.00000000f, 
-31.00000000f, 0.00000000f, -2.00000000f, -3.00000000f, -14.00000000f, -33.00000000f, -9.00000000f, 7.00000000f, 
34.00000000f, -16.00000000f, 5.00000000f, 7.00000000f, 7.00000000f, 9.00000000f, 10.00000000f, 26.00000000f, 
5.00000000f, 1.00000000f, 9.00000000f, 4.00000000f, -14.00000000f, -6.00000000f, -5.00000000f, 9.00000000f, 
3.00000000f, -23.00000000f, -1.00000000f, -24.00000000f, 5.00000000f, -27.00000000f, -28.00000000f, -9.00000000f, 
5.00000000f, 13.00000000f, 12.00000000f, -6.00000000f, -17.00000000f, -10.00000000f, -14.00000000f, 4.00000000f, 
1.00000000f, 13.00000000f, 8.00000000f, -24.00000000f, -21.00000000f, -10.00000000f, -8.00000000f, -15.00000000f, 
-8.00000000f, 13.00000000f, 10.00000000f, 16.00000000f, -8.00000000f, -4.00000000f, -16.00000000f, -23.00000000f, 
-17.00000000f, 20.00000000f, 23.00000000f, 16.00000000f, 23.00000000f, -10.00000000f, -4.00000000f, 9.00000000f, 
10.00000000f, 6.00000000f, 25.00000000f, -9.00000000f, -12.00000000f, -1.00000000f, 6.00000000f, -6.00000000f, 
-26.00000000f, -28.00000000f, -17.00000000f, -24.00000000f, 10.00000000f, -38.00000000f, -13.00000000f, 37.00000000f, 
-6.00000000f, -55.00000000f, 7.00000000f, 52.00000000f, 82.00000000f, 5.00000000f, 6.00000000f, -12.00000000f, 
60.00000000f, 13.00000000f, -53.00000000f, -84.00000000f, -80.00000000f, -33.00000000f, 34.00000000f, -44.00000000f, 
-36.00000000f, 14.00000000f, -54.00000000f, 66.00000000f, 29.00000000f, 78.00000000f, 92.00000000f, 79.00000000f, 
48.00000000f, -12.00000000f, -20.00000000f, 77.00000000f, 1.00000000f, 83.00000000f, -21.00000000f, -37.00000000f, 
-30.00000000f, -10.00000000f, -13.00000000f, 48.00000000f, 48.00000000f, 3.00000000f, 5.00000000f, 19.00000000f, 
46.00000000f, 33.00000000f, 9.00000000f, 33.00000000f, 16.00000000f, 19.00000000f, 56.00000000f, -14.00000000f, 
-22.00000000f, -27.00000000f, 22.00000000f, 49.00000000f, 24.00000000f, 8.00000000f, 23.00000000f, 9.00000000f, 
-5.00000000f, -8.00000000f, 13.00000000f, 12.00000000f, 33.00000000f, 18.00000000f, 10.00000000f, 17.00000000f, 
-6.00000000f, -12.00000000f, -11.00000000f, -28.00000000f, -15.00000000f, 5.00000000f, -10.00000000f, 9.00000000f, 
-22.00000000f, -9.00000000f, -9.00000000f, 7.00000000f, 3.00000000f, 0.00000000f, -20.00000000f, -22.00000000f, 
-32.00000000f, -28.00000000f, 2.00000000f, -14.00000000f, -7.00000000f, -6.00000000f, -20.00000000f, -3.00000000f, 
10.00000000f, -3.00000000f, 4.00000000f, 8.00000000f, 14.00000000f, -1.00000000f, 8.00000000f, 0.00000000f, 
16.00000000f, 10.00000000f, 9.00000000f, 5.00000000f, 3.00000000f, -1.00000000f, 4.00000000f, 5.00000000f, 
-2.00000000f, 9.00000000f, -4.00000000f, -4.00000000f, -5.00000000f, -14.00000000f, -11.00000000f, -7.00000000f, 
-10.00000000f, 3.00000000f, -8.00000000f, 0.00000000f, -9.00000000f, -10.00000000f, -8.00000000f, 5.00000000f, 
-6.00000000f, -1.00000000f, -4.00000000f, 2.00000000f, -5.00000000f, -6.00000000f, -7.00000000f, -7.00000000f, 
-32.00000000f, -20.00000000f, 1.00000000f, -5.00000000f, 5.00000000f, -31.00000000f, -36.00000000f, -6.00000000f, 
3.00000000f, 16.00000000f, -3.00000000f, -28.00000000f, -2.00000000f, 3.00000000f, -40.00000000f, -11.00000000f, 
-17.00000000f, -11.00000000f, -15.00000000f, -14.00000000f, 31.00000000f, -21.00000000f, -54.00000000f, 21.00000000f, 
11.00000000f, 29.00000000f, 23.00000000f, -2.00000000f, 16.00000000f, 0.00000000f, -37.00000000f, -67.00000000f, 
-3.00000000f, 16.00000000f, 33.00000000f, 1.00000000f, -14.00000000f, -8.00000000f, -46.00000000f, 2.00000000f, 
-24.00000000f, 9.00000000f, -42.00000000f, 2.00000000f, -17.00000000f, 29.00000000f, 18.00000000f, 1.00000000f, 
72.00000000f, -10.00000000f, 18.00000000f, -69.00000000f, 11.00000000f, 3.00000000f, 12.00000000f, 19.00000000f, 
17.00000000f, 5.00000000f, -20.00000000f, 16.00000000f, 36.00000000f, 7.00000000f, 24.00000000f, 66.00000000f, 
-18.00000000f, -19.00000000f, -31.00000000f, 25.00000000f, -7.00000000f, -25.00000000f, -10.00000000f, -29.00000000f, 
23.00000000f, -6.00000000f, -34.00000000f, -20.00000000f, 22.00000000f, -17.00000000f, -25.00000000f, -6.00000000f, 
8.00000000f, -5.00000000f, 22.00000000f, 3.00000000f, -5.00000000f, 2.00000000f, -7.00000000f, 2.00000000f, 
10.00000000f, 12.00000000f, 7.00000000f, -5.00000000f, 0.00000000f, -12.00000000f, -24.00000000f, -2.00000000f, 
6.00000000f, -23.00000000f, 25.00000000f, 10.00000000f, -5.00000000f, -25.00000000f, -26.00000000f, 3.00000000f, 
14.00000000f, 15.00000000f, 12.00000000f, 33.00000000f, -15.00000000f, -32.00000000f, -31.00000000f, -28.00000000f, 
-48.00000000f, -40.00000000f, 20.00000000f, -43.00000000f, 61.00000000f, -22.00000000f, -127.00000000f, 121.00000000f, 
12.00000000f, -32.00000000f, -85.00000000f, -65.00000000f, 74.00000000f, -5.00000000f, 61.00000000f, 0.00000000f, 
6.00000000f, 4.00000000f, 1.00000000f, 14.00000000f, 33.00000000f, -26.00000000f, 15.00000000f, 27.00000000f, 
-31.00000000f, -38.00000000f, 0.00000000f, 14.00000000f, 30.00000000f, -57.00000000f, 6.00000000f, 0.00000000f, 
-30.00000000f, -11.00000000f, 42.00000000f, 7.00000000f, 7.00000000f, -23.00000000f, 26.00000000f, 28.00000000f, 
-25.00000000f, -14.00000000f, -21.00000000f, -13.00000000f, 5.00000000f, -13.00000000f, 4.00000000f, 20.00000000f, 
3.00000000f, 2.00000000f, 12.00000000f, 24.00000000f, -30.00000000f, 2.00000000f, 14.00000000f, 2.00000000f, 
-10.00000000f, -4.00000000f, -10.00000000f, -16.00000000f, -18.00000000f, 0.00000000f, -20.00000000f, 15.00000000f, 
25.00000000f, -23.00000000f, -35.00000000f, -12.00000000f, -7.00000000f, 30.00000000f, 4.00000000f, -15.00000000f, 
-1.00000000f, -7.00000000f, -5.00000000f, -2.00000000f, 10.00000000f, -17.00000000f, 7.00000000f, -6.00000000f, 
-1.00000000f, 0.00000000f, 6.00000000f, 2.00000000f, 3.00000000f, 36.00000000f, 34.00000000f, -11.00000000f, 
7.00000000f, 19.00000000f, 12.00000000f, -1.00000000f, 3.00000000f, 5.00000000f, -8.00000000f, -2.00000000f, 
18.00000000f, 28.00000000f, 19.00000000f, -8.00000000f, -4.00000000f, 10.00000000f, -6.00000000f, 6.00000000f, 
-5.00000000f, 1.00000000f, -3.00000000f, 12.00000000f, 3.00000000f, -11.00000000f, -15.00000000f, -21.00000000f, 
-12.00000000f, -6.00000000f, -2.00000000f, -22.00000000f, -16.00000000f, -21.00000000f, 4.00000000f, 13.00000000f, 
-9.00000000f, -12.00000000f, 11.00000000f, 4.00000000f, 14.00000000f, 16.00000000f, -12.00000000f, 11.00000000f, 
5.00000000f, -7.00000000f, 4.00000000f, 11.00000000f, 1.00000000f, -6.00000000f, -2.00000000f, -2.00000000f, 
-2.00000000f, 7.00000000f, 5.00000000f, 24.00000000f, 1.00000000f, -6.00000000f, -1.00000000f, -3.00000000f, 
-31.00000000f, -1.00000000f, 3.00000000f, 16.00000000f, -15.00000000f, -34.00000000f, -20.00000000f, -13.00000000f, 
15.00000000f, -39.00000000f, -4.00000000f, 75.00000000f, -2.00000000f, 48.00000000f, 58.00000000f, 30.00000000f, 
-4.00000000f, -9.00000000f, -47.00000000f, -6.00000000f, 45.00000000f, 40.00000000f, -11.00000000f, 70.00000000f, 
78.00000000f, 68.00000000f, 25.00000000f, 0.00000000f, 62.00000000f, 64.00000000f, 60.00000000f, 65.00000000f, 
62.00000000f, 50.00000000f, 15.00000000f, 25.00000000f, -4.00000000f, 68.00000000f, -9.00000000f, 3.00000000f, 
-57.00000000f, -15.00000000f, 7.00000000f, 0.00000000f, 3.00000000f, -14.00000000f, -30.00000000f, -7.00000000f, 
-24.00000000f, -40.00000000f, -2.00000000f, -26.00000000f, -9.00000000f, 22.00000000f, 14.00000000f, -12.00000000f, 
0.00000000f, 37.00000000f, 40.00000000f, 14.00000000f, 3.00000000f, 19.00000000f, 3.00000000f, 5.00000000f, 
16.00000000f, 14.00000000f, 2.00000000f, 4.00000000f, -1.00000000f, -4.00000000f, -21.00000000f, -12.00000000f, 
-8.00000000f, 7.00000000f, -18.00000000f, -18.00000000f, -28.00000000f, -23.00000000f, -14.00000000f, -12.00000000f, 
-10.00000000f, -1.00000000f, -10.00000000f, -9.00000000f, -6.00000000f, -13.00000000f, 4.00000000f, -4.00000000f, 
-8.00000000f, -9.00000000f, -9.00000000f, -18.00000000f, -7.00000000f, 1.00000000f, -4.00000000f, -4.00000000f, 
-7.00000000f, -3.00000000f, 3.00000000f, -1.00000000f, 2.00000000f, 6.00000000f, 7.00000000f, 4.00000000f, 
2.00000000f, 1.00000000f, 11.00000000f, 10.00000000f, 3.00000000f, 8.00000000f, 0.00000000f, 0.00000000f, 
-2.00000000f, 4.00000000f, 5.00000000f, 1.00000000f, 2.00000000f, 5.00000000f, 3.00000000f, 5.00000000f, 
2.00000000f, 6.00000000f, 0.00000000f, 1.00000000f, -2.00000000f, -3.00000000f, -2.00000000f, 0.00000000f, 
-2.00000000f, -5.00000000f, -4.00000000f, -3.00000000f, -1.00000000f, -8.00000000f, -4.00000000f, -6.00000000f, 
-15.00000000f, -29.00000000f, 21.00000000f, 23.00000000f, 17.00000000f, 2.00000000f, -9.00000000f, -39.00000000f, 
-8.00000000f, 14.00000000f, -14.00000000f, -2.00000000f, 40.00000000f, 22.00000000f, 5.00000000f, 24.00000000f, 
-16.00000000f, 24.00000000f, -1.00000000f, 6.00000000f, 26.00000000f, -6.00000000f, -18.00000000f, -8.00000000f, 
-20.00000000f, -38.00000000f, -36.00000000f, 1.00000000f, -17.00000000f, -8.00000000f, -31.00000000f, 25.00000000f, 
-19.00000000f, -1.00000000f, -31.00000000f, -7.00000000f, 37.00000000f, 22.00000000f, 5.00000000f, -85.00000000f, 
-30.00000000f, -42.00000000f, 53.00000000f, 54.00000000f, -48.00000000f, -11.00000000f, -15.00000000f, -16.00000000f, 
20.00000000f, 52.00000000f, 23.00000000f, 44.00000000f, 13.00000000f, 10.00000000f, 12.00000000f, 7.00000000f, 
-14.00000000f, 0.00000000f, -2.00000000f, 58.00000000f, -29.00000000f, -48.00000000f, 24.00000000f, 14.00000000f, 
48.00000000f, 15.00000000f, -37.00000000f, -15.00000000f, 10.00000000f, 24.00000000f, 12.00000000f, 54.00000000f, 
-13.00000000f, -37.00000000f, 31.00000000f, 32.00000000f, 6.00000000f, -9.00000000f, -38.00000000f, -10.00000000f, 
8.00000000f, 7.00000000f, -7.00000000f, -17.00000000f, -11.00000000f, 1.00000000f, -9.00000000f, -2.00000000f, 
16.00000000f, 0.00000000f, -11.00000000f, -5.00000000f, 7.00000000f, 12.00000000f, -9.00000000f, -8.00000000f, 
-6.00000000f, 11.00000000f, -2.00000000f, -14.00000000f, -21.00000000f, 26.00000000f, 38.00000000f, -3.00000000f, 
24.00000000f, 1.00000000f, 20.00000000f, -7.00000000f, -7.00000000f, 3.00000000f, -24.00000000f, -55.00000000f, 
-69.00000000f, -55.00000000f, -12.00000000f, 100.00000000f, 82.00000000f, 69.00000000f, -93.00000000f, -127.00000000f, 
42.00000000f, -72.00000000f, 33.00000000f, -14.00000000f, -34.00000000f, -69.00000000f, -104.00000000f, -1.00000000f, 
-33.00000000f, -6.00000000f, -1.00000000f, 31.00000000f, 47.00000000f, 29.00000000f, 15.00000000f, 13.00000000f, 
30.00000000f, 1.00000000f, -10.00000000f, 37.00000000f, 51.00000000f, -17.00000000f, -32.00000000f, -10.00000000f, 
-29.00000000f, -16.00000000f, 1.00000000f, 36.00000000f, 34.00000000f, 15.00000000f, 16.00000000f, 24.00000000f, 
-5.00000000f, -6.00000000f, -13.00000000f, 18.00000000f, 18.00000000f, 21.00000000f, -8.00000000f, 11.00000000f, 
-5.00000000f, 15.00000000f, -27.00000000f, 7.00000000f, -2.00000000f, -12.00000000f, 18.00000000f, 6.00000000f, 
15.00000000f, -5.00000000f, -27.00000000f, -8.00000000f, -17.00000000f, -48.00000000f, 4.00000000f, 34.00000000f, 
-6.00000000f, 10.00000000f, -18.00000000f, 4.00000000f, 36.00000000f, 25.00000000f, 15.00000000f, -6.00000000f, 
-28.00000000f, -14.00000000f, 8.00000000f, -5.00000000f, 5.00000000f, -2.00000000f, 5.00000000f, -7.00000000f, 
2.00000000f, -33.00000000f, -19.00000000f, -8.00000000f, 30.00000000f, 0.00000000f, 13.00000000f, 17.00000000f, 
5.00000000f, -8.00000000f, -13.00000000f, -13.00000000f, 5.00000000f, -11.00000000f, 4.00000000f, 18.00000000f, 
-16.00000000f, -34.00000000f, -9.00000000f, 19.00000000f, -5.00000000f, 6.00000000f, -6.00000000f, 6.00000000f, 
17.00000000f, 0.00000000f, -3.00000000f, 1.00000000f, 11.00000000f, 7.00000000f, -10.00000000f, -10.00000000f, 
16.00000000f, 31.00000000f, 19.00000000f, 22.00000000f, 3.00000000f, 3.00000000f, 18.00000000f, -9.00000000f, 
-23.00000000f, -7.00000000f, -12.00000000f, -6.00000000f, 9.00000000f, -1.00000000f, -6.00000000f, -22.00000000f, 
-9.00000000f, 11.00000000f, 7.00000000f, -20.00000000f, 13.00000000f, 27.00000000f, 3.00000000f, -22.00000000f, 
-3.00000000f, 1.00000000f, -4.00000000f, -16.00000000f, 0.00000000f, -39.00000000f, -21.00000000f, -32.00000000f, 
5.00000000f, -2.00000000f, -4.00000000f, -23.00000000f, 23.00000000f, 18.00000000f, 18.00000000f, -18.00000000f, 
-40.00000000f, -34.00000000f, -46.00000000f, 7.00000000f, 27.00000000f, -11.00000000f, -21.00000000f, -51.00000000f, 
-7.00000000f, 11.00000000f, 6.00000000f, -25.00000000f, -20.00000000f, 30.00000000f, 74.00000000f, 75.00000000f, 
1.00000000f, 20.00000000f, 1.00000000f, -65.00000000f, -38.00000000f, 35.00000000f, -3.00000000f, 9.00000000f, 
10.00000000f, -48.00000000f, -40.00000000f, -50.00000000f, 6.00000000f, 31.00000000f, -25.00000000f, 36.00000000f, 
-31.00000000f, -37.00000000f, -30.00000000f, 26.00000000f, 35.00000000f, 1.00000000f, -6.00000000f, 29.00000000f, 
-9.00000000f, 37.00000000f, 22.00000000f, 1.00000000f, -25.00000000f, 15.00000000f, 45.00000000f, 14.00000000f, 
-19.00000000f, -18.00000000f, 6.00000000f, 6.00000000f, 2.00000000f, -27.00000000f, 0.00000000f, -4.00000000f, 
-9.00000000f, -9.00000000f, -18.00000000f, -7.00000000f, 12.00000000f, -10.00000000f, -9.00000000f, -15.00000000f, 
7.00000000f, 3.00000000f, 8.00000000f, 13.00000000f, 0.00000000f, -27.00000000f, 2.00000000f, 1.00000000f, 
4.00000000f, 7.00000000f, 7.00000000f, -1.00000000f, 2.00000000f, -13.00000000f, -8.00000000f, 5.00000000f, 
-2.00000000f, 5.00000000f, 10.00000000f, -5.00000000f, -6.00000000f, -3.00000000f, -4.00000000f, 14.00000000f, 
9.00000000f, 5.00000000f, 5.00000000f, -13.00000000f, 4.00000000f, 3.00000000f, 4.00000000f, 4.00000000f, 
-5.00000000f, 4.00000000f, 4.00000000f, 8.00000000f, 3.00000000f, -4.00000000f, -13.00000000f, 3.00000000f, 
-9.00000000f, -4.00000000f, -5.00000000f, -11.00000000f, -2.00000000f, -11.00000000f, -6.00000000f, -2.00000000f, 
1.00000000f, 3.00000000f, 3.00000000f, -1.00000000f, -6.00000000f, 6.00000000f, 6.00000000f, 10.00000000f, 
7.00000000f, 3.00000000f, 2.00000000f, 7.00000000f, 10.00000000f, 12.00000000f, 13.00000000f, 3.00000000f, 
80.00000000f, 8.00000000f, 2.00000000f, -6.00000000f, 14.00000000f, -17.00000000f, -53.00000000f, 48.00000000f, 
-9.00000000f, -58.00000000f, -10.00000000f, 11.00000000f, -45.00000000f, -42.00000000f, -37.00000000f, 20.00000000f, 
-40.00000000f, 5.00000000f, -37.00000000f, 0.00000000f, -9.00000000f, 42.00000000f, -20.00000000f, 7.00000000f, 
18.00000000f, -1.00000000f, 41.00000000f, -18.00000000f, 6.00000000f, -3.00000000f, -36.00000000f, 7.00000000f, 
62.00000000f, -54.00000000f, 39.00000000f, 31.00000000f, -11.00000000f, 11.00000000f, -22.00000000f, -12.00000000f, 
-8.00000000f, -55.00000000f, -84.00000000f, -29.00000000f, 14.00000000f, 25.00000000f, 47.00000000f, -7.00000000f, 
-127.00000000f, 71.00000000f, 14.00000000f, -10.00000000f, 37.00000000f, -40.00000000f, -5.00000000f, -8.00000000f, 
16.00000000f, -30.00000000f, -17.00000000f, -35.00000000f, -48.00000000f, 33.00000000f, -1.00000000f, 19.00000000f, 
-25.00000000f, -17.00000000f, 55.00000000f, 42.00000000f, -29.00000000f, -19.00000000f, 5.00000000f, -17.00000000f, 
-29.00000000f, -7.00000000f, 10.00000000f, -22.00000000f, -56.00000000f, 10.00000000f, -58.00000000f, 7.00000000f, 
17.00000000f, 5.00000000f, 12.00000000f, 16.00000000f, -12.00000000f, 11.00000000f, 12.00000000f, 2.00000000f, 
-9.00000000f, -3.00000000f, -24.00000000f, 32.00000000f, 8.00000000f, -4.00000000f, 27.00000000f, 6.00000000f, 
-11.00000000f, -4.00000000f, -11.00000000f, -13.00000000f, -15.00000000f, -38.00000000f, -8.00000000f, 2.00000000f, 
20.00000000f, -38.00000000f, -29.00000000f, 19.00000000f, -3.00000000f, -18.00000000f, 35.00000000f, 70.00000000f, 
-66.00000000f, 97.00000000f, 35.00000000f, -56.00000000f, -80.00000000f, -93.00000000f, 19.00000000f, 108.00000000f, 
-70.00000000f, 31.00000000f, -108.00000000f, -32.00000000f, 3.00000000f, 125.00000000f, -116.00000000f, 23.00000000f, 
-58.00000000f, 22.00000000f, -29.00000000f, -68.00000000f, 24.00000000f, 38.00000000f, 3.00000000f, 19.00000000f, 
0.00000000f, 39.00000000f, 8.00000000f, 24.00000000f, 23.00000000f, -7.00000000f, -74.00000000f, 8.00000000f, 
33.00000000f, -17.00000000f, -25.00000000f, 38.00000000f, 42.00000000f, 33.00000000f, 11.00000000f, -16.00000000f, 
-13.00000000f, -23.00000000f, 8.00000000f, 3.00000000f, -45.00000000f, -5.00000000f, 8.00000000f, -45.00000000f, 
-7.00000000f, -34.00000000f, -26.00000000f, 15.00000000f, 27.00000000f, 8.00000000f, 14.00000000f, 5.00000000f, 
24.00000000f, 4.00000000f, -29.00000000f, -10.00000000f, 2.00000000f, -22.00000000f, 20.00000000f, -19.00000000f, 
-37.00000000f, -4.00000000f, 11.00000000f, 47.00000000f, 39.00000000f, 28.00000000f, 13.00000000f, 3.00000000f, 
-6.00000000f, 22.00000000f, -11.00000000f, -36.00000000f, -26.00000000f, -11.00000000f, 9.00000000f, 1.00000000f, 
-31.00000000f, -18.00000000f, -16.00000000f, -31.00000000f, -40.00000000f, 16.00000000f, 6.00000000f, 39.00000000f, 
36.00000000f, 21.00000000f, 6.00000000f, 1.00000000f, -19.00000000f, -11.00000000f, -17.00000000f, -9.00000000f, 
-3.00000000f, -5.00000000f, 6.00000000f, 32.00000000f, 21.00000000f, -26.00000000f, 22.00000000f, 16.00000000f, 
-6.00000000f, -10.00000000f, 18.00000000f, -3.00000000f, -7.00000000f, -10.00000000f, -7.00000000f, -2.00000000f, 
-22.00000000f, 1.00000000f, -4.00000000f, 21.00000000f, -2.00000000f, 15.00000000f, 23.00000000f, -24.00000000f, 
-13.00000000f, 20.00000000f, 12.00000000f, 4.00000000f, -14.00000000f, -19.00000000f, -16.00000000f, 6.00000000f, 
-3.00000000f, 10.00000000f, -26.00000000f, 0.00000000f, -6.00000000f, -21.00000000f, -5.00000000f, -30.00000000f, 
-46.00000000f, 18.00000000f, 1.00000000f, 10.00000000f, 12.00000000f, 0.00000000f, -6.00000000f, 3.00000000f, 
5.00000000f, 24.00000000f, 43.00000000f, 20.00000000f, 52.00000000f, 33.00000000f, -6.00000000f, 3.00000000f, 
-16.00000000f, -34.00000000f, 15.00000000f, 16.00000000f, 6.00000000f, -22.00000000f, 28.00000000f, 36.00000000f, 
51.00000000f, 20.00000000f, 20.00000000f, 54.00000000f, 19.00000000f, -81.00000000f, -99.00000000f, -85.00000000f, 
71.00000000f, -7.00000000f, -31.00000000f, -76.00000000f, -17.00000000f, -11.00000000f, 43.00000000f, -52.00000000f, 
-92.00000000f, -101.00000000f, -48.00000000f, -53.00000000f, -29.00000000f, 9.00000000f, -60.00000000f, -35.00000000f, 
-63.00000000f, 42.00000000f, -30.00000000f, -10.00000000f, -26.00000000f, -40.00000000f, 21.00000000f, -12.00000000f, 
-20.00000000f, 44.00000000f, -4.00000000f, -10.00000000f, -4.00000000f, -25.00000000f, -23.00000000f, 51.00000000f, 
21.00000000f, 28.00000000f, -54.00000000f, -25.00000000f, -26.00000000f, 1.00000000f, 17.00000000f, 19.00000000f, 
3.00000000f, -5.00000000f, 14.00000000f, 10.00000000f, 11.00000000f, 9.00000000f, 20.00000000f, 21.00000000f, 
16.00000000f, -9.00000000f, 31.00000000f, 27.00000000f, 26.00000000f, 30.00000000f, 11.00000000f, 5.00000000f, 
29.00000000f, 12.00000000f, 25.00000000f, 4.00000000f, 2.00000000f, 3.00000000f, -1.00000000f, -24.00000000f, 
-2.00000000f, -14.00000000f, 1.00000000f, 2.00000000f, -4.00000000f, 1.00000000f, 4.00000000f, -5.00000000f, 
-10.00000000f, 1.00000000f, -1.00000000f, -6.00000000f, -10.00000000f, -9.00000000f, -1.00000000f, -5.00000000f, 
-3.00000000f, -1.00000000f, 4.00000000f, -6.00000000f, -3.00000000f, -8.00000000f, -5.00000000f, 3.00000000f, 
1.00000000f, -1.00000000f, -3.00000000f, -9.00000000f, -3.00000000f, 2.00000000f, -8.00000000f, -7.00000000f, 
4.00000000f, 9.00000000f, 7.00000000f, 10.00000000f, -1.00000000f, 1.00000000f, 7.00000000f, -2.00000000f, 
0.00000000f, 4.00000000f, 6.00000000f, 3.00000000f, -2.00000000f, 3.00000000f, 9.00000000f, 6.00000000f, 
23.00000000f, 13.00000000f, 1.00000000f, 20.00000000f, -1.00000000f, -18.00000000f, -48.00000000f, 6.00000000f, 
31.00000000f, 23.00000000f, 34.00000000f, -4.00000000f, -33.00000000f, 15.00000000f, 3.00000000f, -22.00000000f, 
15.00000000f, 7.00000000f, -55.00000000f, -4.00000000f, 25.00000000f, 4.00000000f, -4.00000000f, -12.00000000f, 
-7.00000000f, 12.00000000f, -17.00000000f, -17.00000000f, -15.00000000f, 1.00000000f, -37.00000000f, 10.00000000f, 
12.00000000f, 3.00000000f, 26.00000000f, 9.00000000f, 1.00000000f, -2.00000000f, 22.00000000f, -5.00000000f, 
0.00000000f, -18.00000000f, -46.00000000f, -22.00000000f, 19.00000000f, -10.00000000f, -9.00000000f, 7.00000000f, 
10.00000000f, 6.00000000f, 7.00000000f, 7.00000000f, 11.00000000f, -15.00000000f, -13.00000000f, -8.00000000f, 
0.00000000f, -27.00000000f, -8.00000000f, -9.00000000f, -29.00000000f, 23.00000000f, 10.00000000f, 14.00000000f, 
5.00000000f, -20.00000000f, 4.00000000f, -5.00000000f, 13.00000000f, 12.00000000f, -3.00000000f, -12.00000000f, 
20.00000000f, 46.00000000f, -16.00000000f, 0.00000000f, -24.00000000f, 11.00000000f, -8.00000000f, -29.00000000f, 
5.00000000f, 2.00000000f, -5.00000000f, 1.00000000f, -3.00000000f, -9.00000000f, 11.00000000f, 8.00000000f, 
-5.00000000f, -15.00000000f, -15.00000000f, -7.00000000f, -6.00000000f, -13.00000000f, 15.00000000f, 1.00000000f, 
-15.00000000f, -12.00000000f, -8.00000000f, 3.00000000f, -12.00000000f, -4.00000000f, -6.00000000f, -6.00000000f, 
0.00000000f, -24.00000000f, -8.00000000f, 33.00000000f, 0.00000000f, 18.00000000f, 52.00000000f, -36.00000000f, 
-8.00000000f, -63.00000000f, -22.00000000f, 44.00000000f, 28.00000000f, -24.00000000f, -98.00000000f, 53.00000000f, 
-30.00000000f, -38.00000000f, 127.00000000f, 57.00000000f, -49.00000000f, 91.00000000f, 26.00000000f, 51.00000000f, 
-45.00000000f, -23.00000000f, -30.00000000f, 25.00000000f, -11.00000000f, -26.00000000f, -32.00000000f, -18.00000000f, 
-21.00000000f, 37.00000000f, 21.00000000f, 3.00000000f, 20.00000000f, -28.00000000f, -11.00000000f, -8.00000000f, 
8.00000000f, 25.00000000f, 9.00000000f, -5.00000000f, 2.00000000f, -31.00000000f, -14.00000000f, 11.00000000f, 
1.00000000f, -16.00000000f, -1.00000000f, 0.00000000f, 26.00000000f, 19.00000000f, 36.00000000f, 25.00000000f, 
6.00000000f, -27.00000000f, 1.00000000f, -9.00000000f, 18.00000000f, 28.00000000f, 5.00000000f, 12.00000000f, 
4.00000000f, -7.00000000f, 12.00000000f, 8.00000000f, 30.00000000f, 34.00000000f, 15.00000000f, -18.00000000f, 
12.00000000f, -25.00000000f, -17.00000000f, -5.00000000f, -23.00000000f, -3.00000000f, 10.00000000f, 15.00000000f, 
18.00000000f, 6.00000000f, -8.00000000f, -4.00000000f, -1.00000000f, 26.00000000f, 22.00000000f, -5.00000000f, 
-26.00000000f, -10.00000000f, -8.00000000f, 13.00000000f, -23.00000000f, 6.00000000f, 30.00000000f, 7.00000000f, 
14.00000000f, 20.00000000f, 11.00000000f, -6.00000000f, -10.00000000f, -8.00000000f, -3.00000000f, -3.00000000f, 
0.00000000f, 8.00000000f, -24.00000000f, 3.00000000f, 9.00000000f, -3.00000000f, 6.00000000f, 6.00000000f, 
-7.00000000f, 3.00000000f, 4.00000000f, 0.00000000f, 5.00000000f, -2.00000000f, 11.00000000f, 7.00000000f, 
-22.00000000f, -10.00000000f, 7.00000000f, -5.00000000f, -2.00000000f, -5.00000000f, -18.00000000f, 1.00000000f, 
-24.00000000f, -11.00000000f, 2.00000000f, -9.00000000f, 11.00000000f, 22.00000000f, -13.00000000f, -1.00000000f, 
12.00000000f, -6.00000000f, 11.00000000f, 2.00000000f, -19.00000000f, -4.00000000f, -3.00000000f, 1.00000000f, 
4.00000000f, 5.00000000f, -11.00000000f, 15.00000000f, 13.00000000f, 22.00000000f, 4.00000000f, -1.00000000f, 
2.00000000f, -8.00000000f, -19.00000000f, -15.00000000f, -13.00000000f, -10.00000000f, -22.00000000f, -27.00000000f, 
-32.00000000f, 11.00000000f, -12.00000000f, 8.00000000f, -12.00000000f, -5.00000000f, -31.00000000f, -1.00000000f, 
-27.00000000f, -6.00000000f, -6.00000000f, -14.00000000f, 50.00000000f, -39.00000000f, 63.00000000f, 67.00000000f, 
-46.00000000f, 9.00000000f, 25.00000000f, -6.00000000f, 18.00000000f, -33.00000000f, -31.00000000f, -4.00000000f, 
-47.00000000f, -44.00000000f, -44.00000000f, -42.00000000f, -4.00000000f, 58.00000000f, -3.00000000f, -16.00000000f, 
-58.00000000f, 6.00000000f, 28.00000000f, 35.00000000f, 4.00000000f, 16.00000000f, -12.00000000f, -1.00000000f, 
-7.00000000f, -22.00000000f, -15.00000000f, -25.00000000f, -5.00000000f, 18.00000000f, -2.00000000f, 19.00000000f, 
14.00000000f, 36.00000000f, -16.00000000f, -10.00000000f, 1.00000000f, 10.00000000f, -7.00000000f, 13.00000000f, 
5.00000000f, -5.00000000f, 0.00000000f, 7.00000000f, 18.00000000f, 10.00000000f, -4.00000000f, -12.00000000f, 
-7.00000000f, 4.00000000f, 0.00000000f, 7.00000000f, 6.00000000f, -1.00000000f, -8.00000000f, -20.00000000f, 
-3.00000000f, 0.00000000f, 6.00000000f, 1.00000000f, 2.00000000f, -2.00000000f, 10.00000000f, -2.00000000f, 
7.00000000f, 7.00000000f, -9.00000000f, -5.00000000f, 1.00000000f, -2.00000000f, 4.00000000f, 5.00000000f, 
-6.00000000f, 1.00000000f, 3.00000000f, 6.00000000f, 1.00000000f, -1.00000000f, -6.00000000f, 3.00000000f, 
3.00000000f, 5.00000000f, 4.00000000f, 3.00000000f, 6.00000000f, 10.00000000f, 2.00000000f, 1.00000000f, 
6.00000000f, -2.00000000f, 3.00000000f, 0.00000000f, -5.00000000f, 4.00000000f, 0.00000000f, -2.00000000f, 
4.00000000f, -9.00000000f, -4.00000000f, -1.00000000f, 1.00000000f, -1.00000000f, 0.00000000f, -1.00000000f, 
2.00000000f, -5.00000000f, -2.00000000f, -1.00000000f, -1.00000000f, -2.00000000f, -1.00000000f, 3.00000000f, 
-37.00000000f, 5.00000000f, -26.00000000f, 13.00000000f, 21.00000000f, -3.00000000f, -52.00000000f, -12.00000000f, 
-16.00000000f, 33.00000000f, 30.00000000f, -6.00000000f, 17.00000000f, -31.00000000f, -50.00000000f, 14.00000000f, 
38.00000000f, 6.00000000f, -3.00000000f, 13.00000000f, -10.00000000f, -12.00000000f, -22.00000000f, 8.00000000f, 
2.00000000f, -26.00000000f, 2.00000000f, -13.00000000f, 33.00000000f, 14.00000000f, -87.00000000f, -54.00000000f, 
6.00000000f, 2.00000000f, 7.00000000f, -7.00000000f, 37.00000000f, -2.00000000f, -34.00000000f, 9.00000000f, 
-35.00000000f, -14.00000000f, 4.00000000f, 3.00000000f, 6.00000000f, 17.00000000f, -40.00000000f, 38.00000000f, 
17.00000000f, -6.00000000f, 25.00000000f, -25.00000000f, 15.00000000f, 25.00000000f, -12.00000000f, -37.00000000f, 
7.00000000f, -17.00000000f, -9.00000000f, 4.00000000f, -19.00000000f, -13.00000000f, 22.00000000f, 26.00000000f, 
-10.00000000f, -1.00000000f, -23.00000000f, -33.00000000f, -30.00000000f, -46.00000000f, 26.00000000f, 23.00000000f, 
-27.00000000f, 3.00000000f, 4.00000000f, -18.00000000f, -20.00000000f, 4.00000000f, 28.00000000f, -36.00000000f, 
-10.00000000f, -28.00000000f, 2.00000000f, 10.00000000f, 12.00000000f, -11.00000000f, -9.00000000f, -6.00000000f, 
-15.00000000f, 6.00000000f, 0.00000000f, -3.00000000f, -19.00000000f, -29.00000000f, -23.00000000f, -24.00000000f, 
-9.00000000f, 8.00000000f, 30.00000000f, 25.00000000f, 13.00000000f, -14.00000000f, -12.00000000f, -3.00000000f, 
20.00000000f, 9.00000000f, 17.00000000f, 7.00000000f, 39.00000000f, 14.00000000f, -24.00000000f, -26.00000000f, 
-33.00000000f, 28.00000000f, 54.00000000f, 107.00000000f, 46.00000000f, -94.00000000f, -106.00000000f, 22.00000000f, 
-60.00000000f, -43.00000000f, 96.00000000f, 99.00000000f, 93.00000000f, 50.00000000f, 127.00000000f, -63.00000000f, 
-49.00000000f, 19.00000000f, -41.00000000f, 4.00000000f, -36.00000000f, -17.00000000f, 2.00000000f, 19.00000000f, 
12.00000000f, 31.00000000f, -7.00000000f, -22.00000000f, 1.00000000f, -2.00000000f, -28.00000000f, -29.00000000f, 
-1.00000000f, 58.00000000f, -20.00000000f, -23.00000000f, -9.00000000f, -4.00000000f, 5.00000000f, 19.00000000f, 
43.00000000f, -21.00000000f, 0.00000000f, 1.00000000f, 18.00000000f, 44.00000000f, 19.00000000f, 23.00000000f, 
-5.00000000f, -7.00000000f, -20.00000000f, -4.00000000f, 8.00000000f, 11.00000000f, 15.00000000f, 47.00000000f, 
16.00000000f, 14.00000000f, 21.00000000f, -6.00000000f, 0.00000000f, 13.00000000f, 25.00000000f, -7.00000000f, 
-16.00000000f, -4.00000000f, 1.00000000f, -13.00000000f, -41.00000000f, 25.00000000f, 20.00000000f, 28.00000000f, 
12.00000000f, -7.00000000f, 11.00000000f, 4.00000000f, -7.00000000f, 20.00000000f, 25.00000000f, 13.00000000f, 
12.00000000f, -2.00000000f, -12.00000000f, -14.00000000f, -14.00000000f, 0.00000000f, 9.00000000f, 8.00000000f, 
18.00000000f, 21.00000000f, -11.00000000f, 2.00000000f, 2.00000000f, -14.00000000f, -7.00000000f, 0.00000000f, 
18.00000000f, 27.00000000f, 9.00000000f, -14.00000000f, -34.00000000f, 3.00000000f, 2.00000000f, 4.00000000f, 
6.00000000f, -6.00000000f, 4.00000000f, 16.00000000f, 2.00000000f, -24.00000000f, -28.00000000f, -34.00000000f, 
-5.00000000f, 17.00000000f, 7.00000000f, 18.00000000f, 32.00000000f, 25.00000000f, 1.00000000f, -13.00000000f, 
-18.00000000f, -22.00000000f, -13.00000000f, -2.00000000f, -4.00000000f, -3.00000000f, -7.00000000f, -4.00000000f, 
-7.00000000f, 1.00000000f, -12.00000000f, -46.00000000f, -1.00000000f, -7.00000000f, -19.00000000f, 3.00000000f, 
-20.00000000f, 10.00000000f, 15.00000000f, 16.00000000f, 2.00000000f, -9.00000000f, -15.00000000f, -17.00000000f, 
15.00000000f, 17.00000000f, 11.00000000f, -2.00000000f, -6.00000000f, -11.00000000f, -23.00000000f, -18.00000000f, 
-3.00000000f, -82.00000000f, -66.00000000f, 0.00000000f, -62.00000000f, -24.00000000f, -36.00000000f, -39.00000000f, 
4.00000000f, 58.00000000f, 65.00000000f, 38.00000000f, 21.00000000f, -16.00000000f, -48.00000000f, 66.00000000f, 
-25.00000000f, 44.00000000f, -20.00000000f, -28.00000000f, -19.00000000f, -64.00000000f, -36.00000000f, 9.00000000f, 
7.00000000f, 65.00000000f, 36.00000000f, 3.00000000f, -14.00000000f, -20.00000000f, 4.00000000f, 37.00000000f, 
-29.00000000f, -27.00000000f, 0.00000000f, -24.00000000f, -18.00000000f, -6.00000000f, -10.00000000f, 24.00000000f, 
-6.00000000f, 13.00000000f, 16.00000000f, -20.00000000f, -15.00000000f, -21.00000000f, -10.00000000f, -14.00000000f, 
-16.00000000f, -27.00000000f, 5.00000000f, -30.00000000f, -18.00000000f, -1.00000000f, -2.00000000f, -1.00000000f, 
15.00000000f, 23.00000000f, 1.00000000f, 2.00000000f, 1.00000000f, 32.00000000f, 17.00000000f, -11.00000000f, 
5.00000000f, -5.00000000f, -33.00000000f, 4.00000000f, -5.00000000f, -3.00000000f, -6.00000000f, -22.00000000f, 
-8.00000000f, -10.00000000f, -16.00000000f, -3.00000000f, -16.00000000f, -12.00000000f, 1.00000000f, 11.00000000f, 
8.00000000f, 8.00000000f, -8.00000000f, -4.00000000f, -4.00000000f, -1.00000000f, 7.00000000f, 7.00000000f, 
10.00000000f, 14.00000000f, 6.00000000f, 2.00000000f, 8.00000000f, 14.00000000f, 4.00000000f, 4.00000000f, 
-7.00000000f, 8.00000000f, 2.00000000f, 6.00000000f, 4.00000000f, -1.00000000f, -5.00000000f, -4.00000000f, 
-7.00000000f, -5.00000000f, -2.00000000f, -1.00000000f, -5.00000000f, -3.00000000f, -2.00000000f, 4.00000000f, 
3.00000000f, 7.00000000f, 5.00000000f, -3.00000000f, -3.00000000f, 1.00000000f, 7.00000000f, 5.00000000f, 
7.00000000f, 1.00000000f, -4.00000000f, -4.00000000f, 3.00000000f, 6.00000000f, 4.00000000f, 3.00000000f, 
-20.00000000f, 5.00000000f, 15.00000000f, 12.00000000f, -9.00000000f, -18.00000000f, -55.00000000f, -24.00000000f, 
5.00000000f, -6.00000000f, -76.00000000f, -28.00000000f, 17.00000000f, -26.00000000f, 32.00000000f, -13.00000000f, 
-4.00000000f, -11.00000000f, 38.00000000f, 0.00000000f, -18.00000000f, 35.00000000f, -4.00000000f, 11.00000000f, 
46.00000000f, 0.00000000f, -3.00000000f, -3.00000000f, 23.00000000f, 23.00000000f, 66.00000000f, 13.00000000f, 
8.00000000f, -41.00000000f, 70.00000000f, 11.00000000f, 6.00000000f, -28.00000000f, 10.00000000f, 127.00000000f, 
28.00000000f, -8.00000000f, 31.00000000f, 48.00000000f, 20.00000000f, -29.00000000f, 39.00000000f, -90.00000000f, 
-35.00000000f, -43.00000000f, -7.00000000f, -18.00000000f, -7.00000000f, -2.00000000f, -32.00000000f, -26.00000000f, 
-15.00000000f, 55.00000000f, 5.00000000f, -64.00000000f, 35.00000000f, 9.00000000f, -35.00000000f, -9.00000000f, 
2.00000000f, 18.00000000f, -7.00000000f, -29.00000000f, -2.00000000f, -11.00000000f, -7.00000000f, -30.00000000f, 
-57.00000000f, -14.00000000f, -13.00000000f, -10.00000000f, -2.00000000f, -37.00000000f, -65.00000000f, 23.00000000f, 
21.00000000f, 38.00000000f, 3.00000000f, 21.00000000f, 15.00000000f, 18.00000000f, 13.00000000f, -6.00000000f, 
-6.00000000f, 0.00000000f, -25.00000000f, -28.00000000f, -5.00000000f, 3.00000000f, 30.00000000f, -3.00000000f, 
24.00000000f, 21.00000000f, -25.00000000f, 26.00000000f, 13.00000000f, 24.00000000f, 24.00000000f, 38.00000000f, 
-45.00000000f, -17.00000000f, -40.00000000f, -51.00000000f, -8.00000000f, -5.00000000f, -30.00000000f, -12.00000000f, 
30.00000000f, 53.00000000f, -99.00000000f, -66.00000000f, -92.00000000f, -69.00000000f, 18.00000000f, 117.00000000f, 
13.00000000f, 23.00000000f, 116.00000000f, -77.00000000f, -97.00000000f, 91.00000000f, -70.00000000f, 58.00000000f, 
25.00000000f, 37.00000000f, 43.00000000f, -9.00000000f, -7.00000000f, -15.00000000f, -21.00000000f, -1.00000000f, 
-1.00000000f, 29.00000000f, 20.00000000f, 3.00000000f, 39.00000000f, 0.00000000f, 41.00000000f, 55.00000000f, 
31.00000000f, -39.00000000f, -16.00000000f, 9.00000000f, 25.00000000f, -8.00000000f, -5.00000000f, 1.00000000f, 
6.00000000f, 1.00000000f, 50.00000000f, 18.00000000f, -77.00000000f, 22.00000000f, -28.00000000f, -43.00000000f, 
28.00000000f, 22.00000000f, 44.00000000f, 40.00000000f, -16.00000000f, -26.00000000f, 2.00000000f, -1.00000000f, 
-12.00000000f, 9.00000000f, 16.00000000f, -28.00000000f, -24.00000000f, -8.00000000f, -7.00000000f, 38.00000000f, 
15.00000000f, -7.00000000f, 22.00000000f, 33.00000000f, 36.00000000f, 8.00000000f, 11.00000000f, 44.00000000f, 
15.00000000f, -1.00000000f, 5.00000000f, -20.00000000f, -6.00000000f, -17.00000000f, -17.00000000f, 17.00000000f, 
-21.00000000f, -1.00000000f, 20.00000000f, -40.00000000f, -31.00000000f, 9.00000000f, -22.00000000f, -9.00000000f, 
-13.00000000f, 18.00000000f, 4.00000000f, -12.00000000f, -30.00000000f, -3.00000000f, -23.00000000f, -13.00000000f, 
9.00000000f, 21.00000000f, -11.00000000f, 18.00000000f, 3.00000000f, -7.00000000f, 19.00000000f, 9.00000000f, 
-20.00000000f, 16.00000000f, 25.00000000f, 0.00000000f, -3.00000000f, -9.00000000f, -2.00000000f, -7.00000000f, 
-8.00000000f, -2.00000000f, -20.00000000f, -25.00000000f, -18.00000000f, -16.00000000f, -32.00000000f, -34.00000000f, 
6.00000000f, 23.00000000f, 6.00000000f, 10.00000000f, 6.00000000f, 3.00000000f, -10.00000000f, 1.00000000f, 
-21.00000000f, -7.00000000f, -9.00000000f, -14.00000000f, -22.00000000f, -38.00000000f, 11.00000000f, 38.00000000f, 
15.00000000f, -43.00000000f, -9.00000000f, -7.00000000f, 15.00000000f, 50.00000000f, 5.00000000f, 57.00000000f, 
24.00000000f, -35.00000000f, 2.00000000f, 3.00000000f, 45.00000000f, 19.00000000f, 34.00000000f, -22.00000000f, 
-46.00000000f, 66.00000000f, -25.00000000f, -17.00000000f, -7.00000000f, 7.00000000f, -7.00000000f, 20.00000000f, 
62.00000000f, -11.00000000f, -32.00000000f, 58.00000000f, 34.00000000f, 60.00000000f, 77.00000000f, 98.00000000f, 
-18.00000000f, -15.00000000f, 4.00000000f, 73.00000000f, 53.00000000f, 36.00000000f, 30.00000000f, 13.00000000f, 
-68.00000000f, 49.00000000f, -43.00000000f, 88.00000000f, 77.00000000f, 16.00000000f, -93.00000000f, -42.00000000f, 
-10.00000000f, 54.00000000f, 3.00000000f, -3.00000000f, -3.00000000f, -3.00000000f, 1.00000000f, -25.00000000f, 
15.00000000f, -35.00000000f, -18.00000000f, -21.00000000f, -14.00000000f, -4.00000000f, 38.00000000f, 40.00000000f, 
26.00000000f, -29.00000000f, 6.00000000f, 18.00000000f, -8.00000000f, 26.00000000f, 29.00000000f, -3.00000000f, 
-1.00000000f, -32.00000000f, -5.00000000f, -13.00000000f, 26.00000000f, -9.00000000f, -13.00000000f, -10.00000000f, 
19.00000000f, 23.00000000f, -15.00000000f, -10.00000000f, -15.00000000f, 5.00000000f, -8.00000000f, 3.00000000f, 
-9.00000000f, -4.00000000f, 5.00000000f, 10.00000000f, 4.00000000f, 4.00000000f, -8.00000000f, -4.00000000f, 
-12.00000000f, -15.00000000f, -9.00000000f, 4.00000000f, 15.00000000f, 11.00000000f, -5.00000000f, -14.00000000f, 
-20.00000000f, -18.00000000f, -5.00000000f, 7.00000000f, 6.00000000f, -6.00000000f, 2.00000000f, 1.00000000f, 
-4.00000000f, -11.00000000f, -10.00000000f, 9.00000000f, 7.00000000f, 1.00000000f, 9.00000000f, 3.00000000f, 
2.00000000f, 14.00000000f, 6.00000000f, 14.00000000f, 2.00000000f, -8.00000000f, 2.00000000f, -4.00000000f, 
-10.00000000f, -7.00000000f, -10.00000000f, -1.00000000f, 2.00000000f, -5.00000000f, -10.00000000f, 0.00000000f, 
1.00000000f, 3.00000000f, -3.00000000f, -1.00000000f, 3.00000000f, -6.00000000f, -13.00000000f, -4.00000000f, 
-21.00000000f, 7.00000000f, 8.00000000f, 23.00000000f, -18.00000000f, 17.00000000f, -17.00000000f, 6.00000000f, 
8.00000000f, 4.00000000f, 11.00000000f, 40.00000000f, -11.00000000f, 2.00000000f, 6.00000000f, -7.00000000f, 
1.00000000f, 12.00000000f, 1.00000000f, -16.00000000f, -32.00000000f, -28.00000000f, 2.00000000f, 35.00000000f, 
33.00000000f, 17.00000000f, 11.00000000f, 12.00000000f, -29.00000000f, 8.00000000f, -22.00000000f, -28.00000000f, 
15.00000000f, 25.00000000f, -41.00000000f, -40.00000000f, -33.00000000f, -25.00000000f, 8.00000000f, 39.00000000f, 
67.00000000f, 46.00000000f, 14.00000000f, -46.00000000f, 11.00000000f, -24.00000000f, -27.00000000f, 43.00000000f, 
10.00000000f, -84.00000000f, -22.00000000f, -8.00000000f, 1.00000000f, -1.00000000f, -32.00000000f, -1.00000000f, 
-2.00000000f, -15.00000000f, 12.00000000f, -48.00000000f, 9.00000000f, 39.00000000f, 38.00000000f, -10.00000000f, 
5.00000000f, -4.00000000f, 2.00000000f, 19.00000000f, 21.00000000f, -13.00000000f, -18.00000000f, -7.00000000f, 
52.00000000f, 32.00000000f, -52.00000000f, -19.00000000f, 33.00000000f, -24.00000000f, 17.00000000f, 9.00000000f, 
-8.00000000f, -7.00000000f, 14.00000000f, 18.00000000f, 19.00000000f, 21.00000000f, 21.00000000f, 15.00000000f, 
-5.00000000f, 3.00000000f, 4.00000000f, 13.00000000f, 21.00000000f, 17.00000000f, 38.00000000f, 12.00000000f, 
19.00000000f, -4.00000000f, -7.00000000f, 22.00000000f, 11.00000000f, 1.00000000f, 20.00000000f, -1.00000000f, 
-19.00000000f, -24.00000000f, -2.00000000f, 16.00000000f, 22.00000000f, -20.00000000f, 38.00000000f, 38.00000000f, 
77.00000000f, 5.00000000f, 39.00000000f, -7.00000000f, 81.00000000f, -44.00000000f, -79.00000000f, -97.00000000f, 
-64.00000000f, -127.00000000f, 78.00000000f, -2.00000000f, 46.00000000f, -72.00000000f, -14.00000000f, -73.00000000f, 
43.00000000f, 7.00000000f, 13.00000000f, -34.00000000f, -38.00000000f, -5.00000000f, -21.00000000f, -51.00000000f, 
-10.00000000f, -13.00000000f, 18.00000000f, 46.00000000f, -9.00000000f, -14.00000000f, -54.00000000f, -62.00000000f, 
32.00000000f, -20.00000000f, 23.00000000f, 12.00000000f, -21.00000000f, -35.00000000f, -13.00000000f, -12.00000000f, 
-3.00000000f, 24.00000000f, 15.00000000f, 14.00000000f, -25.00000000f, -45.00000000f, 4.00000000f, -13.00000000f, 
-21.00000000f, 40.00000000f, 50.00000000f, -12.00000000f, 1.00000000f, 7.00000000f, -14.00000000f, -5.00000000f, 
-7.00000000f, 4.00000000f, 6.00000000f, 1.00000000f, 31.00000000f, 21.00000000f, -1.00000000f, 2.00000000f, 
52.00000000f, 14.00000000f, 27.00000000f, -4.00000000f, -11.00000000f, -1.00000000f, 22.00000000f, 15.00000000f, 
13.00000000f, 16.00000000f, 11.00000000f, 9.00000000f, 0.00000000f, 9.00000000f, 13.00000000f, 2.00000000f, 
7.00000000f, 1.00000000f, 25.00000000f, 30.00000000f, 17.00000000f, -11.00000000f, 7.00000000f, 33.00000000f, 
12.00000000f, 18.00000000f, 23.00000000f, 18.00000000f, -10.00000000f, -11.00000000f, 3.00000000f, 15.00000000f, 
7.00000000f, 12.00000000f, -3.00000000f, -5.00000000f, 14.00000000f, 4.00000000f, 2.00000000f, -14.00000000f, 
2.00000000f, 8.00000000f, 12.00000000f, -2.00000000f, 3.00000000f, 0.00000000f, 4.00000000f, 10.00000000f, 
-4.00000000f, -18.00000000f, -10.00000000f, -32.00000000f, -1.00000000f, -15.00000000f, 9.00000000f, 0.00000000f, 
-19.00000000f, 13.00000000f, 2.00000000f, 0.00000000f, -3.00000000f, -6.00000000f, -11.00000000f, 4.00000000f, 
1.00000000f, -23.00000000f, 6.00000000f, 19.00000000f, -20.00000000f, -16.00000000f, -6.00000000f, -1.00000000f, 
2.00000000f, -13.00000000f, 12.00000000f, 13.00000000f, -3.00000000f, -1.00000000f, -8.00000000f, -28.00000000f, 
-38.00000000f, -24.00000000f, -28.00000000f, -22.00000000f, -30.00000000f, -54.00000000f, -67.00000000f, 12.00000000f, 
-6.00000000f, 14.00000000f, 2.00000000f, -46.00000000f, 8.00000000f, -48.00000000f, -32.00000000f, 5.00000000f, 
-53.00000000f, -50.00000000f, -33.00000000f, 23.00000000f, 38.00000000f, -73.00000000f, 22.00000000f, 122.00000000f, 
-68.00000000f, -5.00000000f, 69.00000000f, 81.00000000f, 6.00000000f, 45.00000000f, 32.00000000f, -4.00000000f, 
56.00000000f, 1.00000000f, 14.00000000f, -42.00000000f, -14.00000000f, 42.00000000f, 18.00000000f, -15.00000000f, 
-41.00000000f, -47.00000000f, -19.00000000f, -16.00000000f, 3.00000000f, 5.00000000f, 19.00000000f, -5.00000000f, 
12.00000000f, -30.00000000f, -3.00000000f, -13.00000000f, -4.00000000f, 4.00000000f, -20.00000000f, -31.00000000f, 
-5.00000000f, 19.00000000f, 15.00000000f, 1.00000000f, -7.00000000f, 9.00000000f, -3.00000000f, 10.00000000f, 
-1.00000000f, -8.00000000f, 0.00000000f, -5.00000000f, -23.00000000f, 6.00000000f, -5.00000000f, 14.00000000f, 
-12.00000000f, -7.00000000f, -27.00000000f, -16.00000000f, -13.00000000f, 12.00000000f, -2.00000000f, -3.00000000f, 
-10.00000000f, -1.00000000f, -6.00000000f, 0.00000000f, 4.00000000f, 5.00000000f, 3.00000000f, -1.00000000f, 
7.00000000f, 7.00000000f, 3.00000000f, 0.00000000f, 7.00000000f, -11.00000000f, 4.00000000f, 5.00000000f, 
7.00000000f, 1.00000000f, 0.00000000f, 8.00000000f, 1.00000000f, -5.00000000f, -1.00000000f, 5.00000000f, 
11.00000000f, 3.00000000f, -4.00000000f, 0.00000000f, 3.00000000f, 6.00000000f, 3.00000000f, -1.00000000f, 
8.00000000f, 10.00000000f, 4.00000000f, 4.00000000f, -2.00000000f, 1.00000000f, -2.00000000f, 0.00000000f, 
-2.00000000f, -6.00000000f, -8.00000000f, -3.00000000f, -3.00000000f, -8.00000000f, -7.00000000f, -6.00000000f, 
-3.00000000f, -8.00000000f, -2.00000000f, -1.00000000f, -7.00000000f, -1.00000000f, -7.00000000f, -3.00000000f, 
-9.00000000f, -47.00000000f, -13.00000000f, 2.00000000f, 17.00000000f, -18.00000000f, -9.00000000f, -8.00000000f, 
29.00000000f, 44.00000000f, -17.00000000f, 8.00000000f, -51.00000000f, -22.00000000f, -23.00000000f, -25.00000000f, 
22.00000000f, 30.00000000f, 27.00000000f, 35.00000000f, -3.00000000f, -17.00000000f, 2.00000000f, 5.00000000f, 
-30.00000000f, 2.00000000f, 57.00000000f, -1.00000000f, -31.00000000f, -6.00000000f, -45.00000000f, -33.00000000f, 
29.00000000f, 41.00000000f, 27.00000000f, -49.00000000f, -73.00000000f, -5.00000000f, -34.00000000f, 34.00000000f, 
37.00000000f, 22.00000000f, -76.00000000f, 19.00000000f, 5.00000000f, -44.00000000f, -9.00000000f, 46.00000000f, 
-9.00000000f, -13.00000000f, 8.00000000f, -44.00000000f, 9.00000000f, 25.00000000f, -23.00000000f, 33.00000000f, 
62.00000000f, 21.00000000f, 18.00000000f, -35.00000000f, 35.00000000f, 6.00000000f, 18.00000000f, 20.00000000f, 
-19.00000000f, -3.00000000f, -44.00000000f, 53.00000000f, 14.00000000f, 18.00000000f, -35.00000000f, 19.00000000f, 
43.00000000f, 20.00000000f, -27.00000000f, -23.00000000f, 22.00000000f, -22.00000000f, -23.00000000f, 11.00000000f, 
-14.00000000f, -8.00000000f, -15.00000000f, -16.00000000f, -19.00000000f, -11.00000000f, -5.00000000f, -1.00000000f, 
11.00000000f, -14.00000000f, -20.00000000f, -8.00000000f, 1.00000000f, -12.00000000f, -9.00000000f, -5.00000000f, 
-36.00000000f, -20.00000000f, -21.00000000f, -2.00000000f, -5.00000000f, 15.00000000f, 33.00000000f, 0.00000000f, 
53.00000000f, 0.00000000f, -9.00000000f, 38.00000000f, -4.00000000f, -29.00000000f, 84.00000000f, -40.00000000f, 
16.00000000f, 69.00000000f, 21.00000000f, 23.00000000f, -13.00000000f, 92.00000000f, 89.00000000f, -74.00000000f, 
56.00000000f, -43.00000000f, -127.00000000f, -60.00000000f, 13.00000000f, -68.00000000f, -118.00000000f, 25.00000000f, 
30.00000000f, -6.00000000f, 27.00000000f, 19.00000000f, 23.00000000f, -40.00000000f, -27.00000000f, -2.00000000f, 
18.00000000f, -39.00000000f, -30.00000000f, 10.00000000f, 17.00000000f, -26.00000000f, 26.00000000f, 27.00000000f, 
-36.00000000f, -31.00000000f, 27.00000000f, 28.00000000f, 0.00000000f, -35.00000000f, 25.00000000f, 25.00000000f, 
-15.00000000f, 6.00000000f, -11.00000000f, -30.00000000f, -14.00000000f, -58.00000000f, 21.00000000f, 23.00000000f, 
-24.00000000f, -5.00000000f, -11.00000000f, -30.00000000f, -11.00000000f, 2.00000000f, 0.00000000f, 8.00000000f, 
6.00000000f, 10.00000000f, -15.00000000f, -39.00000000f, -20.00000000f, -13.00000000f, 19.00000000f, 22.00000000f, 
9.00000000f, -12.00000000f, -29.00000000f, -4.00000000f, 5.00000000f, 27.00000000f, 0.00000000f, 5.00000000f, 
2.00000000f, 11.00000000f, 2.00000000f, -8.00000000f, 24.00000000f, 0.00000000f, 16.00000000f, 3.00000000f, 
24.00000000f, -21.00000000f, -22.00000000f, -2.00000000f, 13.00000000f, 14.00000000f, -8.00000000f, -16.00000000f, 
-9.00000000f, -17.00000000f, 11.00000000f, 1.00000000f, -5.00000000f, 1.00000000f, 17.00000000f, -8.00000000f, 
-2.00000000f, 3.00000000f, -21.00000000f, 22.00000000f, 40.00000000f, -4.00000000f, 7.00000000f, -5.00000000f, 
3.00000000f, 24.00000000f, 9.00000000f, 1.00000000f, 3.00000000f, 3.00000000f, -11.00000000f, 5.00000000f, 
15.00000000f, 8.00000000f, 8.00000000f, 6.00000000f, -28.00000000f, -33.00000000f, -3.00000000f, 16.00000000f, 
3.00000000f, 19.00000000f, 31.00000000f, -21.00000000f, 5.00000000f, 10.00000000f, -7.00000000f, -1.00000000f, 
8.00000000f, 0.00000000f, -3.00000000f, 13.00000000f, 21.00000000f, 4.00000000f, -8.00000000f, -24.00000000f, 
5.00000000f, 12.00000000f, -33.00000000f, -3.00000000f, 7.00000000f, -11.00000000f, -20.00000000f, 8.00000000f, 
-12.00000000f, -6.00000000f, 8.00000000f, -9.00000000f, -29.00000000f, -21.00000000f, 37.00000000f, 2.00000000f, 
8.00000000f, 64.00000000f, -59.00000000f, 4.00000000f, 27.00000000f, -72.00000000f, 26.00000000f, 10.00000000f, 
-11.00000000f, -8.00000000f, -48.00000000f, -78.00000000f, 17.00000000f, 58.00000000f, 47.00000000f, -120.00000000f, 
26.00000000f, 23.00000000f, 80.00000000f, -25.00000000f, -41.00000000f, -7.00000000f, 19.00000000f, 1.00000000f, 
76.00000000f, -20.00000000f, 49.00000000f, 52.00000000f, -8.00000000f, -51.00000000f, -58.00000000f, -2.00000000f, 
-19.00000000f, 15.00000000f, 14.00000000f, 6.00000000f, 15.00000000f, -14.00000000f, -7.00000000f, -17.00000000f, 
-32.00000000f, -27.00000000f, 6.00000000f, 17.00000000f, 24.00000000f, 16.00000000f, 4.00000000f, 4.00000000f, 
8.00000000f, 53.00000000f, 15.00000000f, 21.00000000f, 18.00000000f, -6.00000000f, 0.00000000f, 8.00000000f, 
8.00000000f, 9.00000000f, -20.00000000f, 1.00000000f, -19.00000000f, -14.00000000f, 0.00000000f, 9.00000000f, 
-7.00000000f, 11.00000000f, 15.00000000f, 17.00000000f, 1.00000000f, 14.00000000f, 9.00000000f, 8.00000000f, 
14.00000000f, 9.00000000f, 11.00000000f, -1.00000000f, -4.00000000f, -4.00000000f, -15.00000000f, -5.00000000f, 
0.00000000f, -4.00000000f, 16.00000000f, 1.00000000f, -2.00000000f, 10.00000000f, -4.00000000f, 9.00000000f, 
12.00000000f, 10.00000000f, 12.00000000f, -4.00000000f, -4.00000000f, -9.00000000f, 2.00000000f, 2.00000000f, 
-7.00000000f, 2.00000000f, 9.00000000f, 7.00000000f, -6.00000000f, 1.00000000f, 2.00000000f, 7.00000000f, 
9.00000000f, -2.00000000f, -3.00000000f, -1.00000000f, -6.00000000f, -2.00000000f, 0.00000000f, -1.00000000f, 
-5.00000000f, -4.00000000f, 0.00000000f, 3.00000000f, -5.00000000f, -2.00000000f, -5.00000000f, -5.00000000f, 
-4.00000000f, -3.00000000f, 1.00000000f, -2.00000000f, -1.00000000f, -5.00000000f, -3.00000000f, 1.00000000f, 
27.00000000f, 26.00000000f, 2.00000000f, 14.00000000f, -17.00000000f, -29.00000000f, -34.00000000f, -18.00000000f, 
-4.00000000f, 14.00000000f, -48.00000000f, -36.00000000f, -21.00000000f, -16.00000000f, 15.00000000f, 29.00000000f, 
6.00000000f, -5.00000000f, 18.00000000f, 12.00000000f, -20.00000000f, -4.00000000f, 7.00000000f, -13.00000000f, 
4.00000000f, -28.00000000f, 5.00000000f, -9.00000000f, 24.00000000f, 29.00000000f, -15.00000000f, 10.00000000f, 
49.00000000f, 7.00000000f, -3.00000000f, 15.00000000f, -44.00000000f, -17.00000000f, 9.00000000f, 99.00000000f, 
-11.00000000f, 12.00000000f, -30.00000000f, -17.00000000f, 42.00000000f, -19.00000000f, 8.00000000f, -48.00000000f, 
2.00000000f, -27.00000000f, 3.00000000f, -46.00000000f, -7.00000000f, 17.00000000f, 10.00000000f, 18.00000000f, 
-2.00000000f, 43.00000000f, -7.00000000f, -24.00000000f, -29.00000000f, -15.00000000f, 12.00000000f, 37.00000000f, 
-7.00000000f, 1.00000000f, -39.00000000f, -2.00000000f, -10.00000000f, -36.00000000f, -26.00000000f, 17.00000000f, 
19.00000000f, 34.00000000f, 0.00000000f, -15.00000000f, 13.00000000f, 11.00000000f, 24.00000000f, 39.00000000f, 
10.00000000f, 10.00000000f, 31.00000000f, 25.00000000f, 16.00000000f, -13.00000000f, 4.00000000f, -7.00000000f, 
2.00000000f, 15.00000000f, 5.00000000f, 10.00000000f, -21.00000000f, -8.00000000f, -26.00000000f, -24.00000000f, 
21.00000000f, 8.00000000f, -12.00000000f, 39.00000000f, 8.00000000f, -36.00000000f, -26.00000000f, 14.00000000f, 
-27.00000000f, 11.00000000f, -10.00000000f, -13.00000000f, 11.00000000f, -13.00000000f, 11.00000000f, 50.00000000f, 
-5.00000000f, -100.00000000f, 23.00000000f, 76.00000000f, 24.00000000f, -127.00000000f, -68.00000000f, 75.00000000f, 
41.00000000f, 110.00000000f, -56.00000000f, -24.00000000f, -35.00000000f, 49.00000000f, 29.00000000f, -3.00000000f, 
-72.00000000f, 9.00000000f, 37.00000000f, -11.00000000f, 29.00000000f, -6.00000000f, 9.00000000f, 17.00000000f, 
35.00000000f, -31.00000000f, 2.00000000f, 31.00000000f, 25.00000000f, 29.00000000f, 38.00000000f, 29.00000000f, 
-17.00000000f, 12.00000000f, 40.00000000f, -28.00000000f, -6.00000000f, -10.00000000f, -9.00000000f, -5.00000000f, 
-2.00000000f, -22.00000000f, 19.00000000f, 31.00000000f, -39.00000000f, -15.00000000f, -33.00000000f, -32.00000000f, 
-4.00000000f, 33.00000000f, -23.00000000f, -32.00000000f, 8.00000000f, 0.00000000f, -8.00000000f, -22.00000000f, 
-10.00000000f, 20.00000000f, 35.00000000f, -10.00000000f, -2.00000000f, -23.00000000f, -2.00000000f, 26.00000000f, 
18.00000000f, -1.00000000f, 11.00000000f, -5.00000000f, 23.00000000f, 6.00000000f, 33.00000000f, 17.00000000f, 
11.00000000f, 19.00000000f, 18.00000000f, 13.00000000f, -8.00000000f, -23.00000000f, -32.00000000f, -12.00000000f, 
6.00000000f, 17.00000000f, 19.00000000f, -25.00000000f, -18.00000000f, 9.00000000f, -30.00000000f, 4.00000000f, 
4.00000000f, 14.00000000f, 4.00000000f, 14.00000000f, -10.00000000f, -7.00000000f, 1.00000000f, -12.00000000f, 
-3.00000000f, 4.00000000f, -34.00000000f, -3.00000000f, 5.00000000f, -4.00000000f, 22.00000000f, 3.00000000f, 
12.00000000f, 12.00000000f, 17.00000000f, 7.00000000f, -3.00000000f, -15.00000000f, 4.00000000f, -5.00000000f, 
3.00000000f, -9.00000000f, -2.00000000f, -6.00000000f, -20.00000000f, 1.00000000f, 40.00000000f, 20.00000000f, 
18.00000000f, 17.00000000f, -6.00000000f, -10.00000000f, 4.00000000f, -10.00000000f, -5.00000000f, 18.00000000f, 
-10.00000000f, -20.00000000f, -34.00000000f, -9.00000000f, 24.00000000f, 7.00000000f, -14.00000000f, -15.00000000f, 
11.00000000f, -32.00000000f, -33.00000000f, -22.00000000f, -13.00000000f, 1.00000000f, -18.00000000f, 4.00000000f, 
-16.00000000f, -10.00000000f, 5.00000000f, -15.00000000f, -11.00000000f, -32.00000000f, -36.00000000f, 19.00000000f, 
-58.00000000f, -58.00000000f, -53.00000000f, -3.00000000f, 14.00000000f, 11.00000000f, 43.00000000f, 29.00000000f, 
17.00000000f, -19.00000000f, 16.00000000f, 54.00000000f, 39.00000000f, -38.00000000f, -109.00000000f, 89.00000000f, 
-97.00000000f, 2.00000000f, 44.00000000f, 82.00000000f, 37.00000000f, 51.00000000f, 88.00000000f, -5.00000000f, 
-80.00000000f, 32.00000000f, 42.00000000f, -18.00000000f, -33.00000000f, -32.00000000f, -36.00000000f, -37.00000000f, 
25.00000000f, 40.00000000f, 7.00000000f, -16.00000000f, -18.00000000f, -7.00000000f, 6.00000000f, -29.00000000f, 
-7.00000000f, -48.00000000f, -10.00000000f, -16.00000000f, -47.00000000f, -13.00000000f, 11.00000000f, 21.00000000f, 
11.00000000f, -8.00000000f, -17.00000000f, 7.00000000f, 0.00000000f, 18.00000000f, 13.00000000f, 8.00000000f, 
13.00000000f, 16.00000000f, -22.00000000f, -14.00000000f, -4.00000000f, -10.00000000f, -7.00000000f, 7.00000000f, 
18.00000000f, 10.00000000f, 1.00000000f, 1.00000000f, 24.00000000f, 13.00000000f, 4.00000000f, 14.00000000f, 
21.00000000f, 9.00000000f, 14.00000000f, 9.00000000f, 1.00000000f, 14.00000000f, 4.00000000f, 6.00000000f, 
0.00000000f, -2.00000000f, 12.00000000f, 9.00000000f, 15.00000000f, 14.00000000f, 8.00000000f, 0.00000000f, 
3.00000000f, 12.00000000f, 4.00000000f, -12.00000000f, -6.00000000f, -4.00000000f, 0.00000000f, -14.00000000f, 
-6.00000000f, -11.00000000f, -6.00000000f, 2.00000000f, -2.00000000f, 0.00000000f, 1.00000000f, -3.00000000f, 
1.00000000f, -2.00000000f, -8.00000000f, 4.00000000f, -4.00000000f, -8.00000000f, 1.00000000f, -12.00000000f, 
-5.00000000f, -3.00000000f, 1.00000000f, 5.00000000f, 2.00000000f, -2.00000000f, -3.00000000f, -4.00000000f, 
-8.00000000f, -5.00000000f, -2.00000000f, -9.00000000f, -1.00000000f, -6.00000000f, -10.00000000f, -2.00000000f, 
-22.00000000f, -15.00000000f, -2.00000000f, 4.00000000f, -9.00000000f, -4.00000000f, -75.00000000f, -6.00000000f, 
-24.00000000f, 28.00000000f, 14.00000000f, -7.00000000f, -17.00000000f, -38.00000000f, 21.00000000f, 3.00000000f, 
-43.00000000f, 19.00000000f, -35.00000000f, -27.00000000f, 18.00000000f, -11.00000000f, -49.00000000f, -8.00000000f, 
};

const float fc_biases[] = {
-0.01335912f, 0.04441018f, 0.00661044f, -0.00823778f, 0.04618725f, -0.04138917f, 0.04922584f, -0.02644231f, 
0.00799764f, 0.01441632f, -0.03682511f, 0.03452915f, 0.09507322f, -0.00498696f, -0.00906918f, -0.04141217f, 
0.03446185f, 0.02050453f, 0.02545722f, -0.02030230f, 
};
